{
  "name": "pong_action_classifier",
  "version": "0.1",
  "input": {
    "normalization": {
      "type": "z_score",
      "mus": [
        0.33337702376600264, 0.5153563783685589, -0.7617037799827295,
        0.012912516517485205, 0.5022215660378972, 0.5022215660378972
      ],
      "sigmas": [
        0.20643863564542597, 0.2690903048652044, 0.17020660475885124,
        0.6250362669552798, 0.22680095198489916, 0.22680095198489916
      ]
    }
  },
  "layers": [
    {
      "units": 4,
      "weights": [
        [
          1.5399314165115356, -2.8293917179107666, 2.5251340866088867,
          -2.188577651977539
        ],
        [
          -0.42994531989097595, 1.8620425462722778, 0.1342128962278366,
          -1.956148624420166
        ],
        [
          -1.4407576322555542, -1.4305858612060547, 0.16285541653633118,
          -1.7758865356445312
        ],
        [
          0.932239830493927, 0.28353357315063477, 0.09982147812843323,
          -0.1016136035323143
        ],
        [
          -0.9442276954650879, -0.0217185877263546, -0.03981543332338333,
          0.3795953691005707
        ],
        [
          -0.706321120262146, -1.2678898572921753, -1.2025315761566162,
          1.0569857358932495
        ]
      ],
      "biases": [
        0.18150554597377777, -0.6440380215644836, 0.0957767590880394,
        -0.6265329122543335
      ],
      "activation": "relu"
    },
    {
      "units": 3,
      "weights": [
        [-2.110299825668335, -0.4672742784023285, 2.0454554557800293],
        [-5.953957557678223, -0.011198162101209164, 3.4104886054992676],
        [0.8358049988746643, 1.6214172840118408, -1.3059618473052979],
        [4.184386253356934, 0.36222976446151733, -7.352657794952393]
      ],
      "biases": [1.4740967750549316, 0.06014930456876755, -1.546537160873413],
      "activation": "softmax"
    }
  ]
}
